digraph Tree {
node [shape=box] ;
0 [label="X[9] <= 1683.5\nmse = 645398.368\nsamples = 331\nvalue = 826.553"] ;
1 [label="X[9] <= 893.5\nmse = 123021.244\nsamples = 288\nvalue = 582.201"] ;
0 -> 1 [labeldistance=2.5, labelangle=45, headlabel="True"] ;
2 [label="X[9] <= 482.5\nmse = 34688.693\nsamples = 221\nvalue = 424.769"] ;
1 -> 2 ;
3 [label="X[9] <= 254.5\nmse = 10211.536\nsamples = 98\nvalue = 252.878"] ;
2 -> 3 ;
4 [label="X[10] <= 177.0\nmse = 3582.541\nsamples = 34\nvalue = 141.559"] ;
3 -> 4 ;
5 [label="X[10] <= 108.5\nmse = 1303.172\nsamples = 13\nvalue = 76.538"] ;
4 -> 5 ;
6 [label="X[9] <= 51.5\nmse = 450.816\nsamples = 7\nvalue = 48.571"] ;
5 -> 6 ;
7 [label="X[7] <= 1370.5\nmse = 80.889\nsamples = 3\nvalue = 25.667"] ;
6 -> 7 ;
8 [label="mse = 0.0\nsamples = 1\nvalue = 37.0"] ;
7 -> 8 ;
9 [label="X[10] <= 25.5\nmse = 25.0\nsamples = 2\nvalue = 20.0"] ;
7 -> 9 ;
10 [label="mse = 0.0\nsamples = 1\nvalue = 15.0"] ;
9 -> 10 ;
11 [label="mse = 0.0\nsamples = 1\nvalue = 25.0"] ;
9 -> 11 ;
12 [label="X[3] <= 11.5\nmse = 39.688\nsamples = 4\nvalue = 65.75"] ;
6 -> 12 ;
13 [label="X[5] <= 3.0\nmse = 6.222\nsamples = 3\nvalue = 62.333"] ;
12 -> 13 ;
14 [label="mse = 0.0\nsamples = 1\nvalue = 59.0"] ;
13 -> 14 ;
15 [label="X[7] <= 3333.0\nmse = 1.0\nsamples = 2\nvalue = 64.0"] ;
13 -> 15 ;
16 [label="mse = 0.0\nsamples = 1\nvalue = 65.0"] ;
15 -> 16 ;
17 [label="mse = 0.0\nsamples = 1\nvalue = 63.0"] ;
15 -> 17 ;
18 [label="mse = 0.0\nsamples = 1\nvalue = 76.0"] ;
12 -> 18 ;
19 [label="X[9] <= 122.5\nmse = 320.472\nsamples = 6\nvalue = 109.167"] ;
5 -> 19 ;
20 [label="X[13] <= 85.0\nmse = 12.25\nsamples = 2\nvalue = 86.5"] ;
19 -> 20 ;
21 [label="mse = 0.0\nsamples = 1\nvalue = 83.0"] ;
20 -> 21 ;
22 [label="mse = 0.0\nsamples = 1\nvalue = 90.0"] ;
20 -> 22 ;
23 [label="X[17] <= 110.5\nmse = 89.25\nsamples = 4\nvalue = 120.5"] ;
19 -> 23 ;
24 [label="X[5] <= 6.5\nmse = 9.0\nsamples = 2\nvalue = 112.0"] ;
23 -> 24 ;
25 [label="mse = 0.0\nsamples = 1\nvalue = 109.0"] ;
24 -> 25 ;
26 [label="mse = 0.0\nsamples = 1\nvalue = 115.0"] ;
24 -> 26 ;
27 [label="X[9] <= 230.5\nmse = 25.0\nsamples = 2\nvalue = 129.0"] ;
23 -> 27 ;
28 [label="mse = 0.0\nsamples = 1\nvalue = 124.0"] ;
27 -> 28 ;
29 [label="mse = 0.0\nsamples = 1\nvalue = 134.0"] ;
27 -> 29 ;
30 [label="X[9] <= 178.0\nmse = 756.345\nsamples = 21\nvalue = 181.81"] ;
4 -> 30 ;
31 [label="X[13] <= 96.0\nmse = 36.188\nsamples = 4\nvalue = 140.25"] ;
30 -> 31 ;
32 [label="mse = 0.0\nsamples = 1\nvalue = 130.0"] ;
31 -> 32 ;
33 [label="X[7] <= 1320.0\nmse = 1.556\nsamples = 3\nvalue = 143.667"] ;
31 -> 33 ;
34 [label="mse = 0.0\nsamples = 1\nvalue = 142.0"] ;
33 -> 34 ;
35 [label="X[14] <= 2.5\nmse = 0.25\nsamples = 2\nvalue = 144.5"] ;
33 -> 35 ;
36 [label="mse = 0.0\nsamples = 1\nvalue = 144.0"] ;
35 -> 36 ;
37 [label="mse = 0.0\nsamples = 1\nvalue = 145.0"] ;
35 -> 37 ;
38 [label="X[16] <= 6.5\nmse = 423.772\nsamples = 17\nvalue = 191.588"] ;
30 -> 38 ;
39 [label="X[9] <= 219.0\nmse = 204.248\nsamples = 11\nvalue = 202.545"] ;
38 -> 39 ;
40 [label="X[13] <= 172.5\nmse = 52.938\nsamples = 8\nvalue = 194.75"] ;
39 -> 40 ;
41 [label="X[8] <= 921.5\nmse = 14.188\nsamples = 4\nvalue = 189.75"] ;
40 -> 41 ;
42 [label="mse = 0.0\nsamples = 1\nvalue = 184.0"] ;
41 -> 42 ;
43 [label="X[16] <= 4.0\nmse = 4.222\nsamples = 3\nvalue = 191.667"] ;
41 -> 43 ;
44 [label="X[16] <= 1.5\nmse = 1.0\nsamples = 2\nvalue = 193.0"] ;
43 -> 44 ;
45 [label="mse = 0.0\nsamples = 1\nvalue = 192.0"] ;
44 -> 45 ;
46 [label="mse = 0.0\nsamples = 1\nvalue = 194.0"] ;
44 -> 46 ;
47 [label="mse = 0.0\nsamples = 1\nvalue = 189.0"] ;
43 -> 47 ;
48 [label="X[17] <= 25.5\nmse = 41.688\nsamples = 4\nvalue = 199.75"] ;
40 -> 48 ;
49 [label="X[5] <= 9.5\nmse = 4.222\nsamples = 3\nvalue = 203.333"] ;
48 -> 49 ;
50 [label="mse = 0.0\nsamples = 1\nvalue = 206.0"] ;
49 -> 50 ;
51 [label="X[7] <= 2502.0\nmse = 1.0\nsamples = 2\nvalue = 202.0"] ;
49 -> 51 ;
52 [label="mse = 0.0\nsamples = 1\nvalue = 201.0"] ;
51 -> 52 ;
53 [label="mse = 0.0\nsamples = 1\nvalue = 203.0"] ;
51 -> 53 ;
54 [label="mse = 0.0\nsamples = 1\nvalue = 189.0"] ;
48 -> 54 ;
55 [label="X[9] <= 232.5\nmse = 13.556\nsamples = 3\nvalue = 223.333"] ;
39 -> 55 ;
56 [label="X[16] <= 3.0\nmse = 4.0\nsamples = 2\nvalue = 221.0"] ;
55 -> 56 ;
57 [label="mse = 0.0\nsamples = 1\nvalue = 223.0"] ;
56 -> 57 ;
58 [label="mse = 0.0\nsamples = 1\nvalue = 219.0"] ;
56 -> 58 ;
59 [label="mse = 0.0\nsamples = 1\nvalue = 228.0"] ;
55 -> 59 ;
60 [label="X[13] <= 162.5\nmse = 202.583\nsamples = 6\nvalue = 171.5"] ;
38 -> 60 ;
61 [label="mse = 0.0\nsamples = 1\nvalue = 142.0"] ;
60 -> 61 ;
62 [label="X[8] <= 4931.0\nmse = 34.24\nsamples = 5\nvalue = 177.4"] ;
60 -> 62 ;
63 [label="X[13] <= 183.5\nmse = 6.25\nsamples = 2\nvalue = 170.5"] ;
62 -> 63 ;
64 [label="mse = 0.0\nsamples = 1\nvalue = 173.0"] ;
63 -> 64 ;
65 [label="mse = 0.0\nsamples = 1\nvalue = 168.0"] ;
63 -> 65 ;
66 [label="mse = 0.0\nsamples = 3\nvalue = 182.0"] ;
62 -> 66 ;
67 [label="X[10] <= 484.5\nmse = 3652.703\nsamples = 64\nvalue = 312.016"] ;
3 -> 67 ;
68 [label="X[10] <= 381.0\nmse = 1547.268\nsamples = 39\nvalue = 277.256"] ;
67 -> 68 ;
69 [label="X[14] <= 8.0\nmse = 505.875\nsamples = 16\nvalue = 243.0"] ;
68 -> 69 ;
70 [label="X[10] <= 348.5\nmse = 266.249\nsamples = 15\nvalue = 247.133"] ;
69 -> 70 ;
71 [label="X[0] <= 137039.5\nmse = 144.64\nsamples = 10\nvalue = 239.4"] ;
70 -> 71 ;
72 [label="X[8] <= 2373.5\nmse = 48.531\nsamples = 7\nvalue = 245.571"] ;
71 -> 72 ;
73 [label="X[11] <= 1176.0\nmse = 2.25\nsamples = 2\nvalue = 255.5"] ;
72 -> 73 ;
74 [label="mse = 0.0\nsamples = 1\nvalue = 254.0"] ;
73 -> 74 ;
75 [label="mse = 0.0\nsamples = 1\nvalue = 257.0"] ;
73 -> 75 ;
76 [label="X[14] <= 3.0\nmse = 11.84\nsamples = 5\nvalue = 241.6"] ;
72 -> 76 ;
77 [label="X[17] <= 89.5\nmse = 0.889\nsamples = 3\nvalue = 244.333"] ;
76 -> 77 ;
78 [label="mse = 0.0\nsamples = 2\nvalue = 245.0"] ;
77 -> 78 ;
79 [label="mse = 0.0\nsamples = 1\nvalue = 243.0"] ;
77 -> 79 ;
80 [label="X[15] <= 121.0\nmse = 0.25\nsamples = 2\nvalue = 237.5"] ;
76 -> 80 ;
81 [label="mse = 0.0\nsamples = 1\nvalue = 238.0"] ;
80 -> 81 ;
82 [label="mse = 0.0\nsamples = 1\nvalue = 237.0"] ;
80 -> 82 ;
83 [label="X[10] <= 337.0\nmse = 72.667\nsamples = 3\nvalue = 225.0"] ;
71 -> 83 ;
84 [label="X[3] <= 10.5\nmse = 1.0\nsamples = 2\nvalue = 219.0"] ;
83 -> 84 ;
85 [label="mse = 0.0\nsamples = 1\nvalue = 218.0"] ;
84 -> 85 ;
86 [label="mse = 0.0\nsamples = 1\nvalue = 220.0"] ;
84 -> 86 ;
87 [label="mse = 0.0\nsamples = 1\nvalue = 237.0"] ;
83 -> 87 ;
88 [label="X[10] <= 371.5\nmse = 150.64\nsamples = 5\nvalue = 262.6"] ;
70 -> 88 ;
89 [label="X[14] <= 0.5\nmse = 68.25\nsamples = 4\nvalue = 267.5"] ;
88 -> 89 ;
90 [label="mse = 0.0\nsamples = 1\nvalue = 280.0"] ;
89 -> 90 ;
91 [label="X[4] <= 5.0\nmse = 21.556\nsamples = 3\nvalue = 263.333"] ;
89 -> 91 ;
92 [label="X[16] <= 15.0\nmse = 2.25\nsamples = 2\nvalue = 266.5"] ;
91 -> 92 ;
93 [label="mse = 0.0\nsamples = 1\nvalue = 268.0"] ;
92 -> 93 ;
94 [label="mse = 0.0\nsamples = 1\nvalue = 265.0"] ;
92 -> 94 ;
95 [label="mse = 0.0\nsamples = 1\nvalue = 257.0"] ;
91 -> 95 ;
96 [label="mse = 0.0\nsamples = 1\nvalue = 243.0"] ;
88 -> 96 ;
97 [label="mse = 0.0\nsamples = 1\nvalue = 181.0"] ;
69 -> 97 ;
98 [label="X[3] <= 10.5\nmse = 887.471\nsamples = 23\nvalue = 301.087"] ;
68 -> 98 ;
99 [label="X[10] <= 427.0\nmse = 419.82\nsamples = 17\nvalue = 313.059"] ;
98 -> 99 ;
100 [label="X[8] <= 3818.0\nmse = 179.25\nsamples = 8\nvalue = 299.5"] ;
99 -> 100 ;
101 [label="X[10] <= 413.0\nmse = 160.222\nsamples = 3\nvalue = 312.667"] ;
100 -> 101 ;
102 [label="X[6] <= 0.5\nmse = 6.25\nsamples = 2\nvalue = 321.5"] ;
101 -> 102 ;
103 [label="mse = 0.0\nsamples = 1\nvalue = 324.0"] ;
102 -> 103 ;
104 [label="mse = 0.0\nsamples = 1\nvalue = 319.0"] ;
102 -> 104 ;
105 [label="mse = 0.0\nsamples = 1\nvalue = 295.0"] ;
101 -> 105 ;
106 [label="X[17] <= 106.0\nmse = 24.24\nsamples = 5\nvalue = 291.6"] ;
100 -> 106 ;
107 [label="X[9] <= 312.0\nmse = 1.556\nsamples = 3\nvalue = 287.667"] ;
106 -> 107 ;
108 [label="mse = 0.0\nsamples = 1\nvalue = 286.0"] ;
107 -> 108 ;
109 [label="X[9] <= 333.0\nmse = 0.25\nsamples = 2\nvalue = 288.5"] ;
107 -> 109 ;
110 [label="mse = 0.0\nsamples = 1\nvalue = 289.0"] ;
109 -> 110 ;
111 [label="mse = 0.0\nsamples = 1\nvalue = 288.0"] ;
109 -> 111 ;
112 [label="X[4] <= 4.5\nmse = 0.25\nsamples = 2\nvalue = 297.5"] ;
106 -> 112 ;
113 [label="mse = 0.0\nsamples = 1\nvalue = 297.0"] ;
112 -> 113 ;
114 [label="mse = 0.0\nsamples = 1\nvalue = 298.0"] ;
112 -> 114 ;
115 [label="X[13] <= 316.5\nmse = 324.988\nsamples = 9\nvalue = 325.111"] ;
99 -> 115 ;
116 [label="X[16] <= 10.5\nmse = 104.25\nsamples = 8\nvalue = 330.5"] ;
115 -> 116 ;
117 [label="X[8] <= 2600.5\nmse = 54.64\nsamples = 5\nvalue = 336.6"] ;
116 -> 117 ;
118 [label="mse = 0.0\nsamples = 1\nvalue = 351.0"] ;
117 -> 118 ;
119 [label="X[11] <= 3475.0\nmse = 3.5\nsamples = 4\nvalue = 333.0"] ;
117 -> 119 ;
120 [label="X[10] <= 450.5\nmse = 0.667\nsamples = 3\nvalue = 334.0"] ;
119 -> 120 ;
121 [label="mse = 0.0\nsamples = 1\nvalue = 333.0"] ;
120 -> 121 ;
122 [label="X[8] <= 3439.5\nmse = 0.25\nsamples = 2\nvalue = 334.5"] ;
120 -> 122 ;
123 [label="mse = 0.0\nsamples = 1\nvalue = 334.0"] ;
122 -> 123 ;
124 [label="mse = 0.0\nsamples = 1\nvalue = 335.0"] ;
122 -> 124 ;
125 [label="mse = 0.0\nsamples = 1\nvalue = 330.0"] ;
119 -> 125 ;
126 [label="X[3] <= 9.0\nmse = 21.556\nsamples = 3\nvalue = 320.333"] ;
116 -> 126 ;
127 [label="X[14] <= 4.5\nmse = 2.25\nsamples = 2\nvalue = 323.5"] ;
126 -> 127 ;
128 [label="mse = 0.0\nsamples = 1\nvalue = 322.0"] ;
127 -> 128 ;
129 [label="mse = 0.0\nsamples = 1\nvalue = 325.0"] ;
127 -> 129 ;
130 [label="mse = 0.0\nsamples = 1\nvalue = 314.0"] ;
126 -> 130 ;
131 [label="mse = 0.0\nsamples = 1\nvalue = 282.0"] ;
115 -> 131 ;
132 [label="X[7] <= 2495.5\nmse = 655.806\nsamples = 6\nvalue = 267.167"] ;
98 -> 132 ;
133 [label="mse = 0.0\nsamples = 1\nvalue = 213.0"] ;
132 -> 133 ;
134 [label="X[9] <= 318.0\nmse = 82.8\nsamples = 5\nvalue = 278.0"] ;
132 -> 134 ;
135 [label="mse = 0.0\nsamples = 1\nvalue = 260.0"] ;
134 -> 135 ;
136 [label="X[5] <= 10.0\nmse = 2.25\nsamples = 4\nvalue = 282.5"] ;
134 -> 136 ;
137 [label="mse = 0.0\nsamples = 1\nvalue = 280.0"] ;
136 -> 137 ;
138 [label="X[2] <= 1.5\nmse = 0.222\nsamples = 3\nvalue = 283.333"] ;
136 -> 138 ;
139 [label="mse = 0.0\nsamples = 2\nvalue = 283.0"] ;
138 -> 139 ;
140 [label="mse = 0.0\nsamples = 1\nvalue = 284.0"] ;
138 -> 140 ;
141 [label="X[9] <= 426.0\nmse = 2112.102\nsamples = 25\nvalue = 366.24"] ;
67 -> 141 ;
142 [label="X[0] <= 132509.0\nmse = 988.41\nsamples = 12\nvalue = 335.417"] ;
141 -> 142 ;
143 [label="X[8] <= 4853.5\nmse = 489.061\nsamples = 7\nvalue = 356.714"] ;
142 -> 143 ;
144 [label="X[16] <= 6.0\nmse = 12.25\nsamples = 2\nvalue = 386.5"] ;
143 -> 144 ;
145 [label="mse = 0.0\nsamples = 1\nvalue = 383.0"] ;
144 -> 145 ;
146 [label="mse = 0.0\nsamples = 1\nvalue = 390.0"] ;
144 -> 146 ;
147 [label="X[10] <= 553.5\nmse = 182.96\nsamples = 5\nvalue = 344.8"] ;
143 -> 147 ;
148 [label="X[3] <= 7.5\nmse = 20.688\nsamples = 4\nvalue = 351.25"] ;
147 -> 148 ;
149 [label="X[7] <= 2983.0\nmse = 4.222\nsamples = 3\nvalue = 353.667"] ;
148 -> 149 ;
150 [label="mse = 0.0\nsamples = 1\nvalue = 351.0"] ;
149 -> 150 ;
151 [label="X[8] <= 5691.5\nmse = 1.0\nsamples = 2\nvalue = 355.0"] ;
149 -> 151 ;
152 [label="mse = 0.0\nsamples = 1\nvalue = 356.0"] ;
151 -> 152 ;
153 [label="mse = 0.0\nsamples = 1\nvalue = 354.0"] ;
151 -> 153 ;
154 [label="mse = 0.0\nsamples = 1\nvalue = 344.0"] ;
148 -> 154 ;
155 [label="mse = 0.0\nsamples = 1\nvalue = 319.0"] ;
147 -> 155 ;
156 [label="X[14] <= 2.5\nmse = 163.44\nsamples = 5\nvalue = 305.6"] ;
142 -> 156 ;
157 [label="X[5] <= 7.0\nmse = 12.25\nsamples = 2\nvalue = 319.5"] ;
156 -> 157 ;
158 [label="mse = 0.0\nsamples = 1\nvalue = 323.0"] ;
157 -> 158 ;
159 [label="mse = 0.0\nsamples = 1\nvalue = 316.0"] ;
157 -> 159 ;
160 [label="X[15] <= 64.0\nmse = 49.556\nsamples = 3\nvalue = 296.333"] ;
156 -> 160 ;
161 [label="mse = 0.0\nsamples = 1\nvalue = 287.0"] ;
160 -> 161 ;
162 [label="X[6] <= 0.5\nmse = 9.0\nsamples = 2\nvalue = 301.0"] ;
160 -> 162 ;
163 [label="mse = 0.0\nsamples = 1\nvalue = 298.0"] ;
162 -> 163 ;
164 [label="mse = 0.0\nsamples = 1\nvalue = 304.0"] ;
162 -> 164 ;
165 [label="X[15] <= 76.5\nmse = 1462.828\nsamples = 13\nvalue = 394.692"] ;
141 -> 165 ;
166 [label="X[3] <= 3.5\nmse = 284.56\nsamples = 5\nvalue = 434.2"] ;
165 -> 166 ;
167 [label="X[15] <= 21.0\nmse = 6.25\nsamples = 2\nvalue = 452.5"] ;
166 -> 167 ;
168 [label="mse = 0.0\nsamples = 1\nvalue = 450.0"] ;
167 -> 168 ;
169 [label="mse = 0.0\nsamples = 1\nvalue = 455.0"] ;
167 -> 169 ;
170 [label="X[4] <= 3.5\nmse = 98.0\nsamples = 3\nvalue = 422.0"] ;
166 -> 170 ;
171 [label="mse = 0.0\nsamples = 1\nvalue = 409.0"] ;
170 -> 171 ;
172 [label="X[17] <= 95.5\nmse = 20.25\nsamples = 2\nvalue = 428.5"] ;
170 -> 172 ;
173 [label="mse = 0.0\nsamples = 1\nvalue = 433.0"] ;
172 -> 173 ;
174 [label="mse = 0.0\nsamples = 1\nvalue = 424.0"] ;
172 -> 174 ;
175 [label="X[17] <= 131.5\nmse = 614.0\nsamples = 8\nvalue = 370.0"] ;
165 -> 175 ;
176 [label="X[9] <= 462.5\nmse = 292.4\nsamples = 5\nvalue = 385.0"] ;
175 -> 176 ;
177 [label="X[9] <= 442.0\nmse = 84.25\nsamples = 4\nvalue = 377.5"] ;
176 -> 177 ;
178 [label="X[17] <= 109.5\nmse = 20.25\nsamples = 2\nvalue = 369.5"] ;
177 -> 178 ;
179 [label="mse = 0.0\nsamples = 1\nvalue = 374.0"] ;
178 -> 179 ;
180 [label="mse = 0.0\nsamples = 1\nvalue = 365.0"] ;
178 -> 180 ;
181 [label="X[14] <= 5.0\nmse = 20.25\nsamples = 2\nvalue = 385.5"] ;
177 -> 181 ;
182 [label="mse = 0.0\nsamples = 1\nvalue = 381.0"] ;
181 -> 182 ;
183 [label="mse = 0.0\nsamples = 1\nvalue = 390.0"] ;
181 -> 183 ;
184 [label="mse = 0.0\nsamples = 1\nvalue = 415.0"] ;
176 -> 184 ;
185 [label="X[8] <= 5763.0\nmse = 150.0\nsamples = 3\nvalue = 345.0"] ;
175 -> 185 ;
186 [label="mse = 0.0\nsamples = 1\nvalue = 360.0"] ;
185 -> 186 ;
187 [label="X[8] <= 6934.0\nmse = 56.25\nsamples = 2\nvalue = 337.5"] ;
185 -> 187 ;
188 [label="mse = 0.0\nsamples = 1\nvalue = 345.0"] ;
187 -> 188 ;
189 [label="mse = 0.0\nsamples = 1\nvalue = 330.0"] ;
187 -> 189 ;
190 [label="X[10] <= 863.5\nmse = 11893.013\nsamples = 123\nvalue = 561.724"] ;
2 -> 190 ;
191 [label="X[0] <= 130195.5\nmse = 4983.119\nsamples = 70\nvalue = 492.629"] ;
190 -> 191 ;
192 [label="X[9] <= 576.5\nmse = 2571.678\nsamples = 41\nvalue = 532.927"] ;
191 -> 192 ;
193 [label="X[9] <= 520.0\nmse = 794.348\nsamples = 23\nvalue = 496.0"] ;
192 -> 193 ;
194 [label="X[9] <= 506.5\nmse = 305.918\nsamples = 7\nvalue = 465.714"] ;
193 -> 194 ;
195 [label="X[10] <= 654.5\nmse = 126.889\nsamples = 3\nvalue = 447.667"] ;
194 -> 195 ;
196 [label="X[8] <= 6640.0\nmse = 6.25\nsamples = 2\nvalue = 455.5"] ;
195 -> 196 ;
197 [label="mse = 0.0\nsamples = 1\nvalue = 458.0"] ;
196 -> 197 ;
198 [label="mse = 0.0\nsamples = 1\nvalue = 453.0"] ;
196 -> 198 ;
199 [label="mse = 0.0\nsamples = 1\nvalue = 432.0"] ;
195 -> 199 ;
200 [label="X[4] <= 5.5\nmse = 12.688\nsamples = 4\nvalue = 479.25"] ;
194 -> 200 ;
201 [label="X[2] <= 1.5\nmse = 4.0\nsamples = 2\nvalue = 476.0"] ;
200 -> 201 ;
202 [label="mse = 0.0\nsamples = 1\nvalue = 474.0"] ;
201 -> 202 ;
203 [label="mse = 0.0\nsamples = 1\nvalue = 478.0"] ;
201 -> 203 ;
204 [label="X[0] <= 108788.5\nmse = 0.25\nsamples = 2\nvalue = 482.5"] ;
200 -> 204 ;
205 [label="mse = 0.0\nsamples = 1\nvalue = 482.0"] ;
204 -> 205 ;
206 [label="mse = 0.0\nsamples = 1\nvalue = 483.0"] ;
204 -> 206 ;
207 [label="X[16] <= 13.5\nmse = 431.188\nsamples = 16\nvalue = 509.25"] ;
193 -> 207 ;
208 [label="X[15] <= 23.5\nmse = 296.025\nsamples = 9\nvalue = 522.556"] ;
207 -> 208 ;
209 [label="mse = 0.0\nsamples = 1\nvalue = 560.0"] ;
208 -> 209 ;
210 [label="X[15] <= 88.5\nmse = 135.859\nsamples = 8\nvalue = 517.875"] ;
208 -> 210 ;
211 [label="X[3] <= 6.5\nmse = 77.143\nsamples = 7\nvalue = 521.0"] ;
210 -> 211 ;
212 [label="X[8] <= 4543.0\nmse = 3.36\nsamples = 5\nvalue = 526.2"] ;
211 -> 212 ;
213 [label="mse = 0.0\nsamples = 1\nvalue = 523.0"] ;
212 -> 213 ;
214 [label="X[11] <= 6401.5\nmse = 1.0\nsamples = 4\nvalue = 527.0"] ;
212 -> 214 ;
215 [label="mse = 0.0\nsamples = 2\nvalue = 528.0"] ;
214 -> 215 ;
216 [label="mse = 0.0\nsamples = 2\nvalue = 526.0"] ;
214 -> 216 ;
217 [label="X[4] <= 6.5\nmse = 25.0\nsamples = 2\nvalue = 508.0"] ;
211 -> 217 ;
218 [label="mse = 0.0\nsamples = 1\nvalue = 503.0"] ;
217 -> 218 ;
219 [label="mse = 0.0\nsamples = 1\nvalue = 513.0"] ;
217 -> 219 ;
220 [label="mse = 0.0\nsamples = 1\nvalue = 496.0"] ;
210 -> 220 ;
221 [label="X[16] <= 18.5\nmse = 84.694\nsamples = 7\nvalue = 492.143"] ;
207 -> 221 ;
222 [label="X[4] <= 2.5\nmse = 20.75\nsamples = 4\nvalue = 499.5"] ;
221 -> 222 ;
223 [label="mse = 0.0\nsamples = 2\nvalue = 495.0"] ;
222 -> 223 ;
224 [label="X[15] <= 55.5\nmse = 1.0\nsamples = 2\nvalue = 504.0"] ;
222 -> 224 ;
225 [label="mse = 0.0\nsamples = 1\nvalue = 505.0"] ;
224 -> 225 ;
226 [label="mse = 0.0\nsamples = 1\nvalue = 503.0"] ;
224 -> 226 ;
227 [label="X[10] <= 757.0\nmse = 1.556\nsamples = 3\nvalue = 482.333"] ;
221 -> 227 ;
228 [label="X[12] <= 2386.0\nmse = 0.25\nsamples = 2\nvalue = 481.5"] ;
227 -> 228 ;
229 [label="mse = 0.0\nsamples = 1\nvalue = 482.0"] ;
228 -> 229 ;
230 [label="mse = 0.0\nsamples = 1\nvalue = 481.0"] ;
228 -> 230 ;
231 [label="mse = 0.0\nsamples = 1\nvalue = 484.0"] ;
227 -> 231 ;
232 [label="X[9] <= 654.5\nmse = 873.988\nsamples = 18\nvalue = 580.111"] ;
192 -> 232 ;
233 [label="X[13] <= 457.5\nmse = 194.367\nsamples = 13\nvalue = 564.692"] ;
232 -> 233 ;
234 [label="X[9] <= 581.5\nmse = 123.778\nsamples = 9\nvalue = 571.333"] ;
233 -> 234 ;
235 [label="mse = 0.0\nsamples = 1\nvalue = 548.0"] ;
234 -> 235 ;
236 [label="X[13] <= 357.5\nmse = 62.688\nsamples = 8\nvalue = 574.25"] ;
234 -> 236 ;
237 [label="X[9] <= 599.5\nmse = 20.25\nsamples = 2\nvalue = 586.5"] ;
236 -> 237 ;
238 [label="mse = 0.0\nsamples = 1\nvalue = 591.0"] ;
237 -> 238 ;
239 [label="mse = 0.0\nsamples = 1\nvalue = 582.0"] ;
237 -> 239 ;
240 [label="X[14] <= 5.5\nmse = 10.139\nsamples = 6\nvalue = 570.167"] ;
236 -> 240 ;
241 [label="X[4] <= 3.0\nmse = 4.188\nsamples = 4\nvalue = 568.25"] ;
240 -> 241 ;
242 [label="mse = 0.0\nsamples = 1\nvalue = 565.0"] ;
241 -> 242 ;
243 [label="X[10] <= 785.0\nmse = 0.889\nsamples = 3\nvalue = 569.333"] ;
241 -> 243 ;
244 [label="mse = 0.0\nsamples = 1\nvalue = 568.0"] ;
243 -> 244 ;
245 [label="mse = 0.0\nsamples = 2\nvalue = 570.0"] ;
243 -> 245 ;
246 [label="mse = 0.0\nsamples = 2\nvalue = 574.0"] ;
240 -> 246 ;
247 [label="X[16] <= 26.5\nmse = 30.688\nsamples = 4\nvalue = 549.75"] ;
233 -> 247 ;
248 [label="X[14] <= 3.5\nmse = 6.25\nsamples = 2\nvalue = 544.5"] ;
247 -> 248 ;
249 [label="mse = 0.0\nsamples = 1\nvalue = 542.0"] ;
248 -> 249 ;
250 [label="mse = 0.0\nsamples = 1\nvalue = 547.0"] ;
248 -> 250 ;
251 [label="mse = 0.0\nsamples = 2\nvalue = 555.0"] ;
247 -> 251 ;
252 [label="X[7] <= 3573.0\nmse = 415.76\nsamples = 5\nvalue = 620.2"] ;
232 -> 252 ;
253 [label="mse = 0.0\nsamples = 1\nvalue = 656.0"] ;
252 -> 253 ;
254 [label="X[10] <= 830.0\nmse = 119.188\nsamples = 4\nvalue = 611.25"] ;
252 -> 254 ;
255 [label="X[7] <= 4405.0\nmse = 42.25\nsamples = 2\nvalue = 620.5"] ;
254 -> 255 ;
256 [label="mse = 0.0\nsamples = 1\nvalue = 627.0"] ;
255 -> 256 ;
257 [label="mse = 0.0\nsamples = 1\nvalue = 614.0"] ;
255 -> 257 ;
258 [label="X[11] <= 4669.5\nmse = 25.0\nsamples = 2\nvalue = 602.0"] ;
254 -> 258 ;
259 [label="mse = 0.0\nsamples = 1\nvalue = 597.0"] ;
258 -> 259 ;
260 [label="mse = 0.0\nsamples = 1\nvalue = 607.0"] ;
258 -> 260 ;
261 [label="X[10] <= 597.5\nmse = 2850.502\nsamples = 29\nvalue = 435.655"] ;
191 -> 261 ;
262 [label="X[10] <= 519.5\nmse = 991.109\nsamples = 8\nvalue = 368.875"] ;
261 -> 262 ;
263 [label="X[14] <= 4.5\nmse = 293.2\nsamples = 5\nvalue = 347.0"] ;
262 -> 263 ;
264 [label="X[2] <= 2.5\nmse = 81.0\nsamples = 2\nvalue = 328.0"] ;
263 -> 264 ;
265 [label="mse = 0.0\nsamples = 1\nvalue = 337.0"] ;
264 -> 265 ;
266 [label="mse = 0.0\nsamples = 1\nvalue = 319.0"] ;
264 -> 266 ;
267 [label="X[8] <= 10213.0\nmse = 33.556\nsamples = 3\nvalue = 359.667"] ;
263 -> 267 ;
268 [label="mse = 0.0\nsamples = 1\nvalue = 352.0"] ;
267 -> 268 ;
269 [label="X[8] <= 19780.5\nmse = 6.25\nsamples = 2\nvalue = 363.5"] ;
267 -> 269 ;
270 [label="mse = 0.0\nsamples = 1\nvalue = 361.0"] ;
269 -> 270 ;
271 [label="mse = 0.0\nsamples = 1\nvalue = 366.0"] ;
269 -> 271 ;
272 [label="X[11] <= 7785.0\nmse = 27.556\nsamples = 3\nvalue = 405.333"] ;
262 -> 272 ;
273 [label="X[12] <= 3087.0\nmse = 1.0\nsamples = 2\nvalue = 409.0"] ;
272 -> 273 ;
274 [label="mse = 0.0\nsamples = 1\nvalue = 408.0"] ;
273 -> 274 ;
275 [label="mse = 0.0\nsamples = 1\nvalue = 410.0"] ;
273 -> 275 ;
276 [label="mse = 0.0\nsamples = 1\nvalue = 398.0"] ;
272 -> 276 ;
277 [label="X[10] <= 726.0\nmse = 1212.753\nsamples = 21\nvalue = 461.095"] ;
261 -> 277 ;
278 [label="X[7] <= 4688.0\nmse = 434.515\nsamples = 14\nvalue = 445.357"] ;
277 -> 278 ;
279 [label="X[0] <= 131373.5\nmse = 150.0\nsamples = 8\nvalue = 432.0"] ;
278 -> 279 ;
280 [label="mse = 0.0\nsamples = 1\nvalue = 406.0"] ;
279 -> 280 ;
281 [label="X[15] <= 196.0\nmse = 61.061\nsamples = 7\nvalue = 435.714"] ;
279 -> 281 ;
282 [label="X[9] <= 528.5\nmse = 21.25\nsamples = 4\nvalue = 430.5"] ;
281 -> 282 ;
283 [label="mse = 0.0\nsamples = 1\nvalue = 437.0"] ;
282 -> 283 ;
284 [label="X[9] <= 546.5\nmse = 9.556\nsamples = 3\nvalue = 428.333"] ;
282 -> 284 ;
285 [label="mse = 0.0\nsamples = 1\nvalue = 424.0"] ;
284 -> 285 ;
286 [label="X[5] <= 9.5\nmse = 0.25\nsamples = 2\nvalue = 430.5"] ;
284 -> 286 ;
287 [label="mse = 0.0\nsamples = 1\nvalue = 430.0"] ;
286 -> 287 ;
288 [label="mse = 0.0\nsamples = 1\nvalue = 431.0"] ;
286 -> 288 ;
289 [label="X[10] <= 645.5\nmse = 29.556\nsamples = 3\nvalue = 442.667"] ;
281 -> 289 ;
290 [label="mse = 0.0\nsamples = 1\nvalue = 435.0"] ;
289 -> 290 ;
291 [label="X[17] <= 262.5\nmse = 0.25\nsamples = 2\nvalue = 446.5"] ;
289 -> 291 ;
292 [label="mse = 0.0\nsamples = 1\nvalue = 446.0"] ;
291 -> 292 ;
293 [label="mse = 0.0\nsamples = 1\nvalue = 447.0"] ;
291 -> 293 ;
294 [label="X[16] <= 52.0\nmse = 258.806\nsamples = 6\nvalue = 463.167"] ;
278 -> 294 ;
295 [label="X[3] <= 8.5\nmse = 19.36\nsamples = 5\nvalue = 456.2"] ;
294 -> 295 ;
296 [label="X[16] <= 26.5\nmse = 0.25\nsamples = 2\nvalue = 460.5"] ;
295 -> 296 ;
297 [label="mse = 0.0\nsamples = 1\nvalue = 460.0"] ;
296 -> 297 ;
298 [label="mse = 0.0\nsamples = 1\nvalue = 461.0"] ;
296 -> 298 ;
299 [label="X[1] <= 2.0\nmse = 11.556\nsamples = 3\nvalue = 453.333"] ;
295 -> 299 ;
300 [label="X[7] <= 11620.0\nmse = 1.0\nsamples = 2\nvalue = 451.0"] ;
299 -> 300 ;
301 [label="mse = 0.0\nsamples = 1\nvalue = 452.0"] ;
300 -> 301 ;
302 [label="mse = 0.0\nsamples = 1\nvalue = 450.0"] ;
300 -> 302 ;
303 [label="mse = 0.0\nsamples = 1\nvalue = 458.0"] ;
299 -> 303 ;
304 [label="mse = 0.0\nsamples = 1\nvalue = 498.0"] ;
294 -> 304 ;
305 [label="X[4] <= 6.5\nmse = 1283.102\nsamples = 7\nvalue = 492.571"] ;
277 -> 305 ;
306 [label="X[0] <= 135037.0\nmse = 829.889\nsamples = 6\nvalue = 502.333"] ;
305 -> 306 ;
307 [label="X[17] <= 101.0\nmse = 356.222\nsamples = 3\nvalue = 527.333"] ;
306 -> 307 ;
308 [label="mse = 0.0\nsamples = 1\nvalue = 503.0"] ;
307 -> 308 ;
309 [label="X[7] <= 9717.0\nmse = 90.25\nsamples = 2\nvalue = 539.5"] ;
307 -> 309 ;
310 [label="mse = 0.0\nsamples = 1\nvalue = 530.0"] ;
309 -> 310 ;
311 [label="mse = 0.0\nsamples = 1\nvalue = 549.0"] ;
309 -> 311 ;
312 [label="X[10] <= 862.0\nmse = 53.556\nsamples = 3\nvalue = 477.333"] ;
306 -> 312 ;
313 [label="X[10] <= 795.0\nmse = 0.25\nsamples = 2\nvalue = 482.5"] ;
312 -> 313 ;
314 [label="mse = 0.0\nsamples = 1\nvalue = 482.0"] ;
313 -> 314 ;
315 [label="mse = 0.0\nsamples = 1\nvalue = 483.0"] ;
313 -> 315 ;
316 [label="mse = 0.0\nsamples = 1\nvalue = 467.0"] ;
312 -> 316 ;
317 [label="mse = 0.0\nsamples = 1\nvalue = 434.0"] ;
305 -> 317 ;
318 [label="X[9] <= 835.0\nmse = 6385.905\nsamples = 53\nvalue = 652.981"] ;
190 -> 318 ;
319 [label="X[9] <= 638.5\nmse = 3332.81\nsamples = 46\nvalue = 633.804"] ;
318 -> 319 ;
320 [label="X[13] <= 406.5\nmse = 418.24\nsamples = 5\nvalue = 526.6"] ;
319 -> 320 ;
321 [label="X[10] <= 2751.0\nmse = 8.0\nsamples = 3\nvalue = 511.0"] ;
320 -> 321 ;
322 [label="mse = 0.0\nsamples = 2\nvalue = 513.0"] ;
321 -> 322 ;
323 [label="mse = 0.0\nsamples = 1\nvalue = 507.0"] ;
321 -> 323 ;
324 [label="X[8] <= 9754.5\nmse = 121.0\nsamples = 2\nvalue = 550.0"] ;
320 -> 324 ;
325 [label="mse = 0.0\nsamples = 1\nvalue = 561.0"] ;
324 -> 325 ;
326 [label="mse = 0.0\nsamples = 1\nvalue = 539.0"] ;
324 -> 326 ;
327 [label="X[15] <= 304.5\nmse = 2115.766\nsamples = 41\nvalue = 646.878"] ;
319 -> 327 ;
328 [label="X[9] <= 709.5\nmse = 1605.507\nsamples = 38\nvalue = 653.579"] ;
327 -> 328 ;
329 [label="X[14] <= 4.5\nmse = 730.311\nsamples = 14\nvalue = 622.786"] ;
328 -> 329 ;
330 [label="X[2] <= 1.5\nmse = 349.021\nsamples = 12\nvalue = 631.25"] ;
329 -> 330 ;
331 [label="X[0] <= 118984.0\nmse = 81.333\nsamples = 6\nvalue = 645.0"] ;
330 -> 331 ;
332 [label="X[17] <= 120.5\nmse = 13.5\nsamples = 4\nvalue = 639.0"] ;
331 -> 332 ;
333 [label="X[6] <= 0.5\nmse = 2.0\nsamples = 3\nvalue = 641.0"] ;
332 -> 333 ;
334 [label="mse = 0.0\nsamples = 2\nvalue = 642.0"] ;
333 -> 334 ;
335 [label="mse = 0.0\nsamples = 1\nvalue = 639.0"] ;
333 -> 335 ;
336 [label="mse = 0.0\nsamples = 1\nvalue = 633.0"] ;
332 -> 336 ;
337 [label="X[10] <= 930.5\nmse = 1.0\nsamples = 2\nvalue = 657.0"] ;
331 -> 337 ;
338 [label="mse = 0.0\nsamples = 1\nvalue = 656.0"] ;
337 -> 338 ;
339 [label="mse = 0.0\nsamples = 1\nvalue = 658.0"] ;
337 -> 339 ;
340 [label="X[7] <= 5655.0\nmse = 238.583\nsamples = 6\nvalue = 617.5"] ;
330 -> 340 ;
341 [label="X[5] <= 6.0\nmse = 63.04\nsamples = 5\nvalue = 623.6"] ;
340 -> 341 ;
342 [label="X[13] <= 385.0\nmse = 14.0\nsamples = 4\nvalue = 620.0"] ;
341 -> 342 ;
343 [label="mse = 0.0\nsamples = 1\nvalue = 626.0"] ;
342 -> 343 ;
344 [label="X[9] <= 655.5\nmse = 2.667\nsamples = 3\nvalue = 618.0"] ;
342 -> 344 ;
345 [label="mse = 0.0\nsamples = 1\nvalue = 616.0"] ;
344 -> 345 ;
346 [label="X[2] <= 2.5\nmse = 1.0\nsamples = 2\nvalue = 619.0"] ;
344 -> 346 ;
347 [label="mse = 0.0\nsamples = 1\nvalue = 620.0"] ;
346 -> 347 ;
348 [label="mse = 0.0\nsamples = 1\nvalue = 618.0"] ;
346 -> 348 ;
349 [label="mse = 0.0\nsamples = 1\nvalue = 638.0"] ;
341 -> 349 ;
350 [label="mse = 0.0\nsamples = 1\nvalue = 587.0"] ;
340 -> 350 ;
351 [label="X[16] <= 23.5\nmse = 9.0\nsamples = 2\nvalue = 572.0"] ;
329 -> 351 ;
352 [label="mse = 0.0\nsamples = 1\nvalue = 575.0"] ;
351 -> 352 ;
353 [label="mse = 0.0\nsamples = 1\nvalue = 569.0"] ;
351 -> 353 ;
354 [label="X[17] <= 197.5\nmse = 1240.248\nsamples = 24\nvalue = 671.542"] ;
328 -> 354 ;
355 [label="X[10] <= 1060.0\nmse = 695.122\nsamples = 14\nvalue = 692.143"] ;
354 -> 355 ;
356 [label="X[11] <= 4852.5\nmse = 387.8\nsamples = 10\nvalue = 680.0"] ;
355 -> 356 ;
357 [label="X[13] <= 383.5\nmse = 36.0\nsamples = 2\nvalue = 714.0"] ;
356 -> 357 ;
358 [label="mse = 0.0\nsamples = 1\nvalue = 720.0"] ;
357 -> 358 ;
359 [label="mse = 0.0\nsamples = 1\nvalue = 708.0"] ;
357 -> 359 ;
360 [label="X[11] <= 14857.0\nmse = 114.5\nsamples = 8\nvalue = 671.5"] ;
356 -> 360 ;
361 [label="X[12] <= 2943.0\nmse = 68.776\nsamples = 7\nvalue = 674.286"] ;
360 -> 361 ;
362 [label="mse = 0.0\nsamples = 1\nvalue = 658.0"] ;
361 -> 362 ;
363 [label="X[14] <= 4.5\nmse = 28.667\nsamples = 6\nvalue = 677.0"] ;
361 -> 363 ;
364 [label="X[3] <= 3.5\nmse = 6.889\nsamples = 3\nvalue = 681.667"] ;
363 -> 364 ;
365 [label="mse = 0.0\nsamples = 1\nvalue = 678.0"] ;
364 -> 365 ;
366 [label="X[3] <= 5.0\nmse = 0.25\nsamples = 2\nvalue = 683.5"] ;
364 -> 366 ;
367 [label="mse = 0.0\nsamples = 1\nvalue = 684.0"] ;
366 -> 367 ;
368 [label="mse = 0.0\nsamples = 1\nvalue = 683.0"] ;
366 -> 368 ;
369 [label="X[2] <= 2.5\nmse = 6.889\nsamples = 3\nvalue = 672.333"] ;
363 -> 369 ;
370 [label="mse = 0.0\nsamples = 1\nvalue = 676.0"] ;
369 -> 370 ;
371 [label="X[15] <= 115.5\nmse = 0.25\nsamples = 2\nvalue = 670.5"] ;
369 -> 371 ;
372 [label="mse = 0.0\nsamples = 1\nvalue = 671.0"] ;
371 -> 372 ;
373 [label="mse = 0.0\nsamples = 1\nvalue = 670.0"] ;
371 -> 373 ;
374 [label="mse = 0.0\nsamples = 1\nvalue = 652.0"] ;
360 -> 374 ;
375 [label="X[9] <= 758.5\nmse = 173.25\nsamples = 4\nvalue = 722.5"] ;
355 -> 375 ;
376 [label="mse = 0.0\nsamples = 1\nvalue = 700.0"] ;
375 -> 376 ;
377 [label="X[9] <= 775.0\nmse = 6.0\nsamples = 3\nvalue = 730.0"] ;
375 -> 377 ;
378 [label="mse = 0.0\nsamples = 1\nvalue = 733.0"] ;
377 -> 378 ;
379 [label="X[17] <= 164.0\nmse = 2.25\nsamples = 2\nvalue = 728.5"] ;
377 -> 379 ;
380 [label="mse = 0.0\nsamples = 1\nvalue = 730.0"] ;
379 -> 380 ;
381 [label="mse = 0.0\nsamples = 1\nvalue = 727.0"] ;
379 -> 381 ;
382 [label="X[10] <= 1156.5\nmse = 577.41\nsamples = 10\nvalue = 642.7"] ;
354 -> 382 ;
383 [label="X[7] <= 5519.0\nmse = 117.984\nsamples = 8\nvalue = 633.375"] ;
382 -> 383 ;
384 [label="X[0] <= 122746.5\nmse = 6.222\nsamples = 3\nvalue = 645.333"] ;
383 -> 384 ;
385 [label="mse = 0.0\nsamples = 1\nvalue = 642.0"] ;
384 -> 385 ;
386 [label="X[14] <= 7.5\nmse = 1.0\nsamples = 2\nvalue = 647.0"] ;
384 -> 386 ;
387 [label="mse = 0.0\nsamples = 1\nvalue = 646.0"] ;
386 -> 387 ;
388 [label="mse = 0.0\nsamples = 1\nvalue = 648.0"] ;
386 -> 388 ;
389 [label="X[8] <= 12849.5\nmse = 47.76\nsamples = 5\nvalue = 626.2"] ;
383 -> 389 ;
390 [label="X[16] <= 40.0\nmse = 0.222\nsamples = 3\nvalue = 631.333"] ;
389 -> 390 ;
391 [label="mse = 0.0\nsamples = 1\nvalue = 632.0"] ;
390 -> 391 ;
392 [label="mse = 0.0\nsamples = 2\nvalue = 631.0"] ;
390 -> 392 ;
393 [label="X[0] <= 123618.5\nmse = 20.25\nsamples = 2\nvalue = 618.5"] ;
389 -> 393 ;
394 [label="mse = 0.0\nsamples = 1\nvalue = 623.0"] ;
393 -> 394 ;
395 [label="mse = 0.0\nsamples = 1\nvalue = 614.0"] ;
393 -> 395 ;
396 [label="X[2] <= 2.0\nmse = 676.0\nsamples = 2\nvalue = 680.0"] ;
382 -> 396 ;
397 [label="mse = 0.0\nsamples = 1\nvalue = 654.0"] ;
396 -> 397 ;
398 [label="mse = 0.0\nsamples = 1\nvalue = 706.0"] ;
396 -> 398 ;
399 [label="X[4] <= 4.5\nmse = 806.0\nsamples = 3\nvalue = 562.0"] ;
327 -> 399 ;
400 [label="X[7] <= 9172.0\nmse = 9.0\nsamples = 2\nvalue = 542.0"] ;
399 -> 400 ;
401 [label="mse = 0.0\nsamples = 1\nvalue = 545.0"] ;
400 -> 401 ;
402 [label="mse = 0.0\nsamples = 1\nvalue = 539.0"] ;
400 -> 402 ;
403 [label="mse = 0.0\nsamples = 1\nvalue = 602.0"] ;
399 -> 403 ;
404 [label="X[15] <= 137.0\nmse = 8151.714\nsamples = 7\nvalue = 779.0"] ;
318 -> 404 ;
405 [label="X[15] <= 99.0\nmse = 984.24\nsamples = 5\nvalue = 829.4"] ;
404 -> 405 ;
406 [label="X[12] <= 4000.0\nmse = 127.688\nsamples = 4\nvalue = 844.25"] ;
405 -> 406 ;
407 [label="mse = 0.0\nsamples = 1\nvalue = 863.0"] ;
406 -> 407 ;
408 [label="X[8] <= 14663.5\nmse = 14.0\nsamples = 3\nvalue = 838.0"] ;
406 -> 408 ;
409 [label="X[0] <= 108081.5\nmse = 2.25\nsamples = 2\nvalue = 835.5"] ;
408 -> 409 ;
410 [label="mse = 0.0\nsamples = 1\nvalue = 837.0"] ;
409 -> 410 ;
411 [label="mse = 0.0\nsamples = 1\nvalue = 834.0"] ;
409 -> 411 ;
412 [label="mse = 0.0\nsamples = 1\nvalue = 843.0"] ;
408 -> 412 ;
413 [label="mse = 0.0\nsamples = 1\nvalue = 770.0"] ;
405 -> 413 ;
414 [label="X[5] <= 7.5\nmse = 3844.0\nsamples = 2\nvalue = 653.0"] ;
404 -> 414 ;
415 [label="mse = 0.0\nsamples = 1\nvalue = 591.0"] ;
414 -> 415 ;
416 [label="mse = 0.0\nsamples = 1\nvalue = 715.0"] ;
414 -> 416 ;
417 [label="X[9] <= 1360.5\nmse = 62970.399\nsamples = 67\nvalue = 1101.493"] ;
1 -> 417 ;
418 [label="X[17] <= 277.0\nmse = 25127.04\nsamples = 40\nvalue = 937.4"] ;
417 -> 418 ;
419 [label="X[9] <= 1057.0\nmse = 10031.567\nsamples = 29\nvalue = 1012.862"] ;
418 -> 419 ;
420 [label="X[9] <= 942.5\nmse = 1229.781\nsamples = 14\nvalue = 921.071"] ;
419 -> 420 ;
421 [label="X[17] <= 98.0\nmse = 122.889\nsamples = 3\nvalue = 868.333"] ;
420 -> 421 ;
422 [label="mse = 0.0\nsamples = 1\nvalue = 884.0"] ;
421 -> 422 ;
423 [label="X[10] <= 8050.0\nmse = 0.25\nsamples = 2\nvalue = 860.5"] ;
421 -> 423 ;
424 [label="mse = 0.0\nsamples = 1\nvalue = 860.0"] ;
423 -> 424 ;
425 [label="mse = 0.0\nsamples = 1\nvalue = 861.0"] ;
423 -> 425 ;
426 [label="X[9] <= 1052.5\nmse = 566.248\nsamples = 11\nvalue = 935.455"] ;
420 -> 426 ;
427 [label="X[5] <= 3.5\nmse = 245.84\nsamples = 10\nvalue = 929.6"] ;
426 -> 427 ;
428 [label="X[12] <= 3172.0\nmse = 253.556\nsamples = 3\nvalue = 914.667"] ;
427 -> 428 ;
429 [label="mse = 0.0\nsamples = 1\nvalue = 937.0"] ;
428 -> 429 ;
430 [label="X[15] <= 101.5\nmse = 6.25\nsamples = 2\nvalue = 903.5"] ;
428 -> 430 ;
431 [label="mse = 0.0\nsamples = 1\nvalue = 906.0"] ;
430 -> 431 ;
432 [label="mse = 0.0\nsamples = 1\nvalue = 901.0"] ;
430 -> 432 ;
433 [label="X[9] <= 1005.5\nmse = 106.0\nsamples = 7\nvalue = 936.0"] ;
427 -> 433 ;
434 [label="X[13] <= 766.0\nmse = 29.556\nsamples = 3\nvalue = 945.667"] ;
433 -> 434 ;
435 [label="X[9] <= 976.5\nmse = 4.0\nsamples = 2\nvalue = 942.0"] ;
434 -> 435 ;
436 [label="mse = 0.0\nsamples = 1\nvalue = 940.0"] ;
435 -> 436 ;
437 [label="mse = 0.0\nsamples = 1\nvalue = 944.0"] ;
435 -> 437 ;
438 [label="mse = 0.0\nsamples = 1\nvalue = 953.0"] ;
434 -> 438 ;
439 [label="X[15] <= 176.5\nmse = 40.688\nsamples = 4\nvalue = 928.75"] ;
433 -> 439 ;
440 [label="X[7] <= 33464.0\nmse = 2.889\nsamples = 3\nvalue = 932.333"] ;
439 -> 440 ;
441 [label="X[7] <= 13961.0\nmse = 0.25\nsamples = 2\nvalue = 933.5"] ;
440 -> 441 ;
442 [label="mse = 0.0\nsamples = 1\nvalue = 933.0"] ;
441 -> 442 ;
443 [label="mse = 0.0\nsamples = 1\nvalue = 934.0"] ;
441 -> 443 ;
444 [label="mse = 0.0\nsamples = 1\nvalue = 930.0"] ;
440 -> 444 ;
445 [label="mse = 0.0\nsamples = 1\nvalue = 918.0"] ;
439 -> 445 ;
446 [label="mse = 0.0\nsamples = 1\nvalue = 994.0"] ;
426 -> 446 ;
447 [label="X[9] <= 1226.0\nmse = 3043.182\nsamples = 15\nvalue = 1098.533"] ;
419 -> 447 ;
448 [label="X[17] <= 90.5\nmse = 1523.16\nsamples = 13\nvalue = 1082.385"] ;
447 -> 448 ;
449 [label="X[1] <= 1.5\nmse = 28.667\nsamples = 3\nvalue = 1137.0"] ;
448 -> 449 ;
450 [label="X[14] <= 2.5\nmse = 6.25\nsamples = 2\nvalue = 1140.5"] ;
449 -> 450 ;
451 [label="mse = 0.0\nsamples = 1\nvalue = 1143.0"] ;
450 -> 451 ;
452 [label="mse = 0.0\nsamples = 1\nvalue = 1138.0"] ;
450 -> 452 ;
453 [label="mse = 0.0\nsamples = 1\nvalue = 1130.0"] ;
449 -> 453 ;
454 [label="X[14] <= 4.5\nmse = 808.2\nsamples = 10\nvalue = 1066.0"] ;
448 -> 454 ;
455 [label="X[9] <= 1114.0\nmse = 469.188\nsamples = 4\nvalue = 1091.25"] ;
454 -> 455 ;
456 [label="mse = 0.0\nsamples = 1\nvalue = 1058.0"] ;
455 -> 456 ;
457 [label="X[13] <= 514.5\nmse = 134.222\nsamples = 3\nvalue = 1102.333"] ;
455 -> 457 ;
458 [label="mse = 0.0\nsamples = 1\nvalue = 1087.0"] ;
457 -> 458 ;
459 [label="X[0] <= 101796.0\nmse = 25.0\nsamples = 2\nvalue = 1110.0"] ;
457 -> 459 ;
460 [label="mse = 0.0\nsamples = 1\nvalue = 1115.0"] ;
459 -> 460 ;
461 [label="mse = 0.0\nsamples = 1\nvalue = 1105.0"] ;
459 -> 461 ;
462 [label="X[7] <= 7278.0\nmse = 325.806\nsamples = 6\nvalue = 1049.167"] ;
454 -> 462 ;
463 [label="mse = 0.0\nsamples = 1\nvalue = 1078.0"] ;
462 -> 463 ;
464 [label="X[7] <= 10454.0\nmse = 191.44\nsamples = 5\nvalue = 1043.4"] ;
462 -> 464 ;
465 [label="X[17] <= 180.0\nmse = 10.889\nsamples = 3\nvalue = 1032.667"] ;
464 -> 465 ;
466 [label="mse = 0.0\nsamples = 1\nvalue = 1037.0"] ;
465 -> 466 ;
467 [label="X[3] <= 6.0\nmse = 2.25\nsamples = 2\nvalue = 1030.5"] ;
465 -> 467 ;
468 [label="mse = 0.0\nsamples = 1\nvalue = 1029.0"] ;
467 -> 468 ;
469 [label="mse = 0.0\nsamples = 1\nvalue = 1032.0"] ;
467 -> 469 ;
470 [label="X[8] <= 66074.5\nmse = 30.25\nsamples = 2\nvalue = 1059.5"] ;
464 -> 470 ;
471 [label="mse = 0.0\nsamples = 1\nvalue = 1065.0"] ;
470 -> 471 ;
472 [label="mse = 0.0\nsamples = 1\nvalue = 1054.0"] ;
470 -> 472 ;
473 [label="X[15] <= 88.5\nmse = 210.25\nsamples = 2\nvalue = 1203.5"] ;
447 -> 473 ;
474 [label="mse = 0.0\nsamples = 1\nvalue = 1218.0"] ;
473 -> 474 ;
475 [label="mse = 0.0\nsamples = 1\nvalue = 1189.0"] ;
473 -> 475 ;
476 [label="X[10] <= 1093.0\nmse = 10332.066\nsamples = 11\nvalue = 738.455"] ;
418 -> 476 ;
477 [label="X[10] <= 924.5\nmse = 3453.04\nsamples = 5\nvalue = 645.4"] ;
476 -> 477 ;
478 [label="X[3] <= 9.5\nmse = 272.25\nsamples = 2\nvalue = 575.5"] ;
477 -> 478 ;
479 [label="mse = 0.0\nsamples = 1\nvalue = 592.0"] ;
478 -> 479 ;
480 [label="mse = 0.0\nsamples = 1\nvalue = 559.0"] ;
478 -> 480 ;
481 [label="X[10] <= 1005.5\nmse = 144.667\nsamples = 3\nvalue = 692.0"] ;
477 -> 481 ;
482 [label="X[0] <= 129309.5\nmse = 25.0\nsamples = 2\nvalue = 700.0"] ;
481 -> 482 ;
483 [label="mse = 0.0\nsamples = 1\nvalue = 705.0"] ;
482 -> 483 ;
484 [label="mse = 0.0\nsamples = 1\nvalue = 695.0"] ;
482 -> 484 ;
485 [label="mse = 0.0\nsamples = 1\nvalue = 676.0"] ;
481 -> 485 ;
486 [label="X[12] <= 9584.0\nmse = 2835.333\nsamples = 6\nvalue = 816.0"] ;
476 -> 486 ;
487 [label="X[3] <= 5.0\nmse = 340.667\nsamples = 3\nvalue = 768.0"] ;
486 -> 487 ;
488 [label="mse = 0.0\nsamples = 1\nvalue = 742.0"] ;
487 -> 488 ;
489 [label="X[15] <= 234.0\nmse = 4.0\nsamples = 2\nvalue = 781.0"] ;
487 -> 489 ;
490 [label="mse = 0.0\nsamples = 1\nvalue = 779.0"] ;
489 -> 490 ;
491 [label="mse = 0.0\nsamples = 1\nvalue = 783.0"] ;
489 -> 491 ;
492 [label="X[16] <= 50.5\nmse = 722.0\nsamples = 3\nvalue = 864.0"] ;
486 -> 492 ;
493 [label="mse = 0.0\nsamples = 1\nvalue = 827.0"] ;
492 -> 493 ;
494 [label="X[12] <= 13676.0\nmse = 56.25\nsamples = 2\nvalue = 882.5"] ;
492 -> 494 ;
495 [label="mse = 0.0\nsamples = 1\nvalue = 890.0"] ;
494 -> 495 ;
496 [label="mse = 0.0\nsamples = 1\nvalue = 875.0"] ;
494 -> 496 ;
497 [label="X[17] <= 343.5\nmse = 20046.093\nsamples = 27\nvalue = 1344.593"] ;
417 -> 497 ;
498 [label="X[9] <= 1586.0\nmse = 5081.627\nsamples = 20\nvalue = 1411.15"] ;
497 -> 498 ;
499 [label="X[9] <= 1459.5\nmse = 1705.859\nsamples = 16\nvalue = 1382.625"] ;
498 -> 499 ;
500 [label="X[5] <= 11.0\nmse = 365.438\nsamples = 8\nvalue = 1345.75"] ;
499 -> 500 ;
501 [label="X[7] <= 10056.0\nmse = 130.889\nsamples = 3\nvalue = 1365.333"] ;
500 -> 501 ;
502 [label="mse = 0.0\nsamples = 1\nvalue = 1381.0"] ;
501 -> 502 ;
503 [label="X[5] <= 8.5\nmse = 12.25\nsamples = 2\nvalue = 1357.5"] ;
501 -> 503 ;
504 [label="mse = 0.0\nsamples = 1\nvalue = 1354.0"] ;
503 -> 504 ;
505 [label="mse = 0.0\nsamples = 1\nvalue = 1361.0"] ;
503 -> 505 ;
506 [label="X[11] <= 10433.0\nmse = 138.0\nsamples = 5\nvalue = 1334.0"] ;
500 -> 506 ;
507 [label="mse = 0.0\nsamples = 1\nvalue = 1313.0"] ;
506 -> 507 ;
508 [label="X[4] <= 4.5\nmse = 34.688\nsamples = 4\nvalue = 1339.25"] ;
506 -> 508 ;
509 [label="mse = 0.0\nsamples = 1\nvalue = 1330.0"] ;
508 -> 509 ;
510 [label="X[3] <= 2.5\nmse = 8.222\nsamples = 3\nvalue = 1342.333"] ;
508 -> 510 ;
511 [label="mse = 0.0\nsamples = 1\nvalue = 1346.0"] ;
510 -> 511 ;
512 [label="X[15] <= 212.0\nmse = 2.25\nsamples = 2\nvalue = 1340.5"] ;
510 -> 512 ;
513 [label="mse = 0.0\nsamples = 1\nvalue = 1342.0"] ;
512 -> 513 ;
514 [label="mse = 0.0\nsamples = 1\nvalue = 1339.0"] ;
512 -> 514 ;
515 [label="X[15] <= 139.5\nmse = 326.75\nsamples = 8\nvalue = 1419.5"] ;
499 -> 515 ;
516 [label="X[17] <= 120.5\nmse = 98.0\nsamples = 3\nvalue = 1439.0"] ;
515 -> 516 ;
517 [label="X[9] <= 1467.5\nmse = 20.25\nsamples = 2\nvalue = 1445.5"] ;
516 -> 517 ;
518 [label="mse = 0.0\nsamples = 1\nvalue = 1450.0"] ;
517 -> 518 ;
519 [label="mse = 0.0\nsamples = 1\nvalue = 1441.0"] ;
517 -> 519 ;
520 [label="mse = 0.0\nsamples = 1\nvalue = 1426.0"] ;
516 -> 520 ;
521 [label="X[13] <= 841.0\nmse = 98.96\nsamples = 5\nvalue = 1407.8"] ;
515 -> 521 ;
522 [label="mse = 0.0\nsamples = 1\nvalue = 1426.0"] ;
521 -> 522 ;
523 [label="X[4] <= 5.5\nmse = 20.188\nsamples = 4\nvalue = 1403.25"] ;
521 -> 523 ;
524 [label="X[15] <= 207.0\nmse = 4.0\nsamples = 2\nvalue = 1399.0"] ;
523 -> 524 ;
525 [label="mse = 0.0\nsamples = 1\nvalue = 1397.0"] ;
524 -> 525 ;
526 [label="mse = 0.0\nsamples = 1\nvalue = 1401.0"] ;
524 -> 526 ;
527 [label="X[16] <= 24.5\nmse = 0.25\nsamples = 2\nvalue = 1407.5"] ;
523 -> 527 ;
528 [label="mse = 0.0\nsamples = 1\nvalue = 1408.0"] ;
527 -> 528 ;
529 [label="mse = 0.0\nsamples = 1\nvalue = 1407.0"] ;
527 -> 529 ;
530 [label="X[17] <= 194.0\nmse = 2311.188\nsamples = 4\nvalue = 1525.25"] ;
498 -> 530 ;
531 [label="X[0] <= 122669.5\nmse = 961.0\nsamples = 2\nvalue = 1568.0"] ;
530 -> 531 ;
532 [label="mse = 0.0\nsamples = 1\nvalue = 1599.0"] ;
531 -> 532 ;
533 [label="mse = 0.0\nsamples = 1\nvalue = 1537.0"] ;
531 -> 533 ;
534 [label="X[16] <= 24.0\nmse = 6.25\nsamples = 2\nvalue = 1482.5"] ;
530 -> 534 ;
535 [label="mse = 0.0\nsamples = 1\nvalue = 1480.0"] ;
534 -> 535 ;
536 [label="mse = 0.0\nsamples = 1\nvalue = 1485.0"] ;
534 -> 536 ;
537 [label="X[15] <= 455.5\nmse = 13982.531\nsamples = 7\nvalue = 1154.429"] ;
497 -> 537 ;
538 [label="X[8] <= 78443.0\nmse = 8737.04\nsamples = 5\nvalue = 1209.6"] ;
537 -> 538 ;
539 [label="X[0] <= 123311.0\nmse = 1440.667\nsamples = 3\nvalue = 1282.0"] ;
538 -> 539 ;
540 [label="X[16] <= 78.0\nmse = 210.25\nsamples = 2\nvalue = 1256.5"] ;
539 -> 540 ;
541 [label="mse = 0.0\nsamples = 1\nvalue = 1242.0"] ;
540 -> 541 ;
542 [label="mse = 0.0\nsamples = 1\nvalue = 1271.0"] ;
540 -> 542 ;
543 [label="mse = 0.0\nsamples = 1\nvalue = 1333.0"] ;
539 -> 543 ;
544 [label="X[11] <= 37590.0\nmse = 25.0\nsamples = 2\nvalue = 1101.0"] ;
538 -> 544 ;
545 [label="mse = 0.0\nsamples = 1\nvalue = 1096.0"] ;
544 -> 545 ;
546 [label="mse = 0.0\nsamples = 1\nvalue = 1106.0"] ;
544 -> 546 ;
547 [label="X[8] <= 61426.0\nmse = 462.25\nsamples = 2\nvalue = 1016.5"] ;
537 -> 547 ;
548 [label="mse = 0.0\nsamples = 1\nvalue = 1038.0"] ;
547 -> 548 ;
549 [label="mse = 0.0\nsamples = 1\nvalue = 995.0"] ;
547 -> 549 ;
550 [label="X[13] <= 3053.0\nmse = 1065791.981\nsamples = 43\nvalue = 2463.14"] ;
0 -> 550 [labeldistance=2.5, labelangle=-45, headlabel="False"] ;
551 [label="X[13] <= 2122.5\nmse = 269602.728\nsamples = 37\nvalue = 2114.405"] ;
550 -> 551 ;
552 [label="X[10] <= 3049.0\nmse = 115214.718\nsamples = 29\nvalue = 1921.379"] ;
551 -> 552 ;
553 [label="X[7] <= 29632.0\nmse = 55893.779\nsamples = 17\nvalue = 1715.529"] ;
552 -> 553 ;
554 [label="X[9] <= 1905.0\nmse = 46989.938\nsamples = 8\nvalue = 1880.75"] ;
553 -> 554 ;
555 [label="X[3] <= 7.0\nmse = 3984.667\nsamples = 3\nvalue = 1643.0"] ;
554 -> 555 ;
556 [label="X[11] <= 23295.0\nmse = 1056.25\nsamples = 2\nvalue = 1602.5"] ;
555 -> 556 ;
557 [label="mse = 0.0\nsamples = 1\nvalue = 1635.0"] ;
556 -> 557 ;
558 [label="mse = 0.0\nsamples = 1\nvalue = 1570.0"] ;
556 -> 558 ;
559 [label="mse = 0.0\nsamples = 1\nvalue = 1724.0"] ;
555 -> 559 ;
560 [label="X[10] <= 2728.5\nmse = 18529.04\nsamples = 5\nvalue = 2023.4"] ;
554 -> 560 ;
561 [label="X[15] <= 263.0\nmse = 1340.222\nsamples = 3\nvalue = 1918.333"] ;
560 -> 561 ;
562 [label="X[9] <= 2011.0\nmse = 306.25\nsamples = 2\nvalue = 1894.5"] ;
561 -> 562 ;
563 [label="mse = 0.0\nsamples = 1\nvalue = 1877.0"] ;
562 -> 563 ;
564 [label="mse = 0.0\nsamples = 1\nvalue = 1912.0"] ;
562 -> 564 ;
565 [label="mse = 0.0\nsamples = 1\nvalue = 1966.0"] ;
561 -> 565 ;
566 [label="X[12] <= 16384.0\nmse = 2916.0\nsamples = 2\nvalue = 2181.0"] ;
560 -> 566 ;
567 [label="mse = 0.0\nsamples = 1\nvalue = 2235.0"] ;
566 -> 567 ;
568 [label="mse = 0.0\nsamples = 1\nvalue = 2127.0"] ;
566 -> 568 ;
569 [label="X[10] <= 2308.5\nmse = 17974.889\nsamples = 9\nvalue = 1568.667"] ;
553 -> 569 ;
570 [label="X[9] <= 1871.5\nmse = 4506.0\nsamples = 3\nvalue = 1397.0"] ;
569 -> 570 ;
571 [label="mse = 0.0\nsamples = 1\nvalue = 1490.0"] ;
570 -> 571 ;
572 [label="X[6] <= 0.5\nmse = 272.25\nsamples = 2\nvalue = 1350.5"] ;
570 -> 572 ;
573 [label="mse = 0.0\nsamples = 1\nvalue = 1334.0"] ;
572 -> 573 ;
574 [label="mse = 0.0\nsamples = 1\nvalue = 1367.0"] ;
572 -> 574 ;
575 [label="X[16] <= 76.0\nmse = 2607.25\nsamples = 6\nvalue = 1654.5"] ;
569 -> 575 ;
576 [label="X[13] <= 1399.0\nmse = 843.556\nsamples = 3\nvalue = 1617.667"] ;
575 -> 576 ;
577 [label="X[10] <= 2424.5\nmse = 25.0\nsamples = 2\nvalue = 1638.0"] ;
576 -> 577 ;
578 [label="mse = 0.0\nsamples = 1\nvalue = 1643.0"] ;
577 -> 578 ;
579 [label="mse = 0.0\nsamples = 1\nvalue = 1633.0"] ;
577 -> 579 ;
580 [label="mse = 0.0\nsamples = 1\nvalue = 1577.0"] ;
576 -> 580 ;
581 [label="X[9] <= 2649.0\nmse = 1657.556\nsamples = 3\nvalue = 1691.333"] ;
575 -> 581 ;
582 [label="X[2] <= 2.0\nmse = 272.25\nsamples = 2\nvalue = 1718.5"] ;
581 -> 582 ;
583 [label="mse = 0.0\nsamples = 1\nvalue = 1735.0"] ;
582 -> 583 ;
584 [label="mse = 0.0\nsamples = 1\nvalue = 1702.0"] ;
582 -> 584 ;
585 [label="mse = 0.0\nsamples = 1\nvalue = 1637.0"] ;
581 -> 585 ;
586 [label="X[9] <= 2172.5\nmse = 54180.0\nsamples = 12\nvalue = 2213.0"] ;
552 -> 586 ;
587 [label="X[12] <= 23608.0\nmse = 9680.222\nsamples = 3\nvalue = 1869.667"] ;
586 -> 587 ;
588 [label="X[13] <= 1492.5\nmse = 306.25\nsamples = 2\nvalue = 1938.5"] ;
587 -> 588 ;
589 [label="mse = 0.0\nsamples = 1\nvalue = 1956.0"] ;
588 -> 589 ;
590 [label="mse = 0.0\nsamples = 1\nvalue = 1921.0"] ;
588 -> 590 ;
591 [label="mse = 0.0\nsamples = 1\nvalue = 1732.0"] ;
587 -> 591 ;
592 [label="X[0] <= 130195.5\nmse = 16623.136\nsamples = 9\nvalue = 2327.444"] ;
586 -> 592 ;
593 [label="X[16] <= 21.0\nmse = 2772.49\nsamples = 7\nvalue = 2267.286"] ;
592 -> 593 ;
594 [label="X[12] <= 7480.0\nmse = 2.25\nsamples = 2\nvalue = 2191.5"] ;
593 -> 594 ;
595 [label="mse = 0.0\nsamples = 1\nvalue = 2190.0"] ;
594 -> 595 ;
596 [label="mse = 0.0\nsamples = 1\nvalue = 2193.0"] ;
594 -> 596 ;
597 [label="X[5] <= 13.5\nmse = 664.24\nsamples = 5\nvalue = 2297.6"] ;
593 -> 597 ;
598 [label="X[14] <= 8.0\nmse = 236.25\nsamples = 4\nvalue = 2308.5"] ;
597 -> 598 ;
599 [label="X[10] <= 3247.0\nmse = 36.0\nsamples = 2\nvalue = 2294.0"] ;
598 -> 599 ;
600 [label="mse = 0.0\nsamples = 1\nvalue = 2288.0"] ;
599 -> 600 ;
601 [label="mse = 0.0\nsamples = 1\nvalue = 2300.0"] ;
599 -> 601 ;
602 [label="X[0] <= 110839.5\nmse = 16.0\nsamples = 2\nvalue = 2323.0"] ;
598 -> 602 ;
603 [label="mse = 0.0\nsamples = 1\nvalue = 2319.0"] ;
602 -> 603 ;
604 [label="mse = 0.0\nsamples = 1\nvalue = 2327.0"] ;
602 -> 604 ;
605 [label="mse = 0.0\nsamples = 1\nvalue = 2254.0"] ;
597 -> 605 ;
606 [label="X[3] <= 8.5\nmse = 8100.0\nsamples = 2\nvalue = 2538.0"] ;
592 -> 606 ;
607 [label="mse = 0.0\nsamples = 1\nvalue = 2448.0"] ;
606 -> 607 ;
608 [label="mse = 0.0\nsamples = 1\nvalue = 2628.0"] ;
606 -> 608 ;
609 [label="X[10] <= 4590.0\nmse = 204587.609\nsamples = 8\nvalue = 2814.125"] ;
551 -> 609 ;
610 [label="X[15] <= 222.0\nmse = 15262.583\nsamples = 6\nvalue = 2574.5"] ;
609 -> 610 ;
611 [label="X[17] <= 155.0\nmse = 6975.688\nsamples = 4\nvalue = 2647.25"] ;
610 -> 611 ;
612 [label="mse = 0.0\nsamples = 1\nvalue = 2781.0"] ;
611 -> 612 ;
613 [label="X[11] <= 21891.0\nmse = 1350.222\nsamples = 3\nvalue = 2602.667"] ;
611 -> 613 ;
614 [label="X[9] <= 2669.5\nmse = 49.0\nsamples = 2\nvalue = 2577.0"] ;
613 -> 614 ;
615 [label="mse = 0.0\nsamples = 1\nvalue = 2570.0"] ;
614 -> 615 ;
616 [label="mse = 0.0\nsamples = 1\nvalue = 2584.0"] ;
614 -> 616 ;
617 [label="mse = 0.0\nsamples = 1\nvalue = 2654.0"] ;
613 -> 617 ;
618 [label="X[9] <= 2956.5\nmse = 81.0\nsamples = 2\nvalue = 2429.0"] ;
610 -> 618 ;
619 [label="mse = 0.0\nsamples = 1\nvalue = 2438.0"] ;
618 -> 619 ;
620 [label="mse = 0.0\nsamples = 1\nvalue = 2420.0"] ;
618 -> 620 ;
621 [label="X[0] <= 131299.5\nmse = 83521.0\nsamples = 2\nvalue = 3533.0"] ;
609 -> 621 ;
622 [label="mse = 0.0\nsamples = 1\nvalue = 3822.0"] ;
621 -> 622 ;
623 [label="mse = 0.0\nsamples = 1\nvalue = 3244.0"] ;
621 -> 623 ;
624 [label="X[13] <= 3951.0\nmse = 600896.556\nsamples = 6\nvalue = 4613.667"] ;
550 -> 624 ;
625 [label="X[15] <= 165.5\nmse = 32267.556\nsamples = 3\nvalue = 3930.667"] ;
624 -> 625 ;
626 [label="mse = 0.0\nsamples = 1\nvalue = 3682.0"] ;
625 -> 626 ;
627 [label="X[10] <= 5391.0\nmse = 2025.0\nsamples = 2\nvalue = 4055.0"] ;
625 -> 627 ;
628 [label="mse = 0.0\nsamples = 1\nvalue = 4100.0"] ;
627 -> 628 ;
629 [label="mse = 0.0\nsamples = 1\nvalue = 4010.0"] ;
627 -> 629 ;
630 [label="X[10] <= 7892.0\nmse = 236547.556\nsamples = 3\nvalue = 5296.667"] ;
624 -> 630 ;
631 [label="X[9] <= 5096.0\nmse = 50176.0\nsamples = 2\nvalue = 4978.0"] ;
630 -> 631 ;
632 [label="mse = 0.0\nsamples = 1\nvalue = 4754.0"] ;
631 -> 632 ;
633 [label="mse = 0.0\nsamples = 1\nvalue = 5202.0"] ;
631 -> 633 ;
634 [label="mse = 0.0\nsamples = 1\nvalue = 5934.0"] ;
630 -> 634 ;
}